svm_type c_svc
kernel_type rbf
gamma 0.0078125
nr_class 2
total_sv 48
rho 1
label 16 15
nr_sv 24 24
SV
0.03125 
0.03125 
0.03125 
0.03125 
0.03125 
0.03125 
0.03125 
0.03125 
0.03125 
0.03125 
0.03125 
0.03125 
0.03125 
0.03125 
0.03125 
0.03125 
0.03125 
0.03125 
0.03125 
0.03125 
0.03125 
0.03125 
0.03125 
0.03125 
-0.03125 
-0.03125 
-0.03125 
-0.03125 
-0.03125 
-0.03125 
-0.03125 
-0.03125 
-0.03125 
-0.03125 
-0.03125 
-0.03125 
-0.03125 
-0.03125 
-0.03125 
-0.03125 
-0.03125 
-0.03125 
-0.03125 
-0.03125 
-0.03125 
-0.03125 
-0.03125 
-0.03125 
