svm_type c_svc
kernel_type rbf
gamma 8
nr_class 2
total_sv 397
rho 0.417809
label 1 -1
nr_sv 198 199
SV
0.125 1:0.230769 2:0.075 3:-0.406897 4:-0.179487 
0.125 1:-0.615385 3:-0.117241 4:-0.210256 
0.125 1:0.307692 2:0.325 3:-0.296552 4:-0.34359 
0.125 1:0.230769 3:-0.103448 4:0.0871795 
0.125 1:-0.307692 2:-0.15 3:-0.213793 4:0.0358974 
0.125 1:0.153846 2:0.175 3:-0.351724 4:-0.220513 
0.125 1:-0.307692 2:-0.1 3:-0.131034 4:0.148718 
0.125 1:-0.384615 2:0.075 3:-0.0482759 4:-0.0358974 
0.125 1:-0.307692 2:0.075 3:0.158621 4:0.158974 
0.125 2:0.375 3:0.324138 4:0.282051 
0.125 1:0.153846 2:0.1 3:0.503448 4:0.415385 
0.125 1:0.230769 2:0.125 3:0.737931 4:0.589744 
0.125 1:-0.384615 2:0.05 3:-0.103448 4:0.897436 
0.125 1:0.230769 2:0.225 3:-0.186207 4:0.958974 
0.125 1:-0.307692 2:0.075 3:0.0206897 4:-0.025641 
0.125 1:0.538462 2:0.425 3:-0.0206897 4:0.025641 
0.125 1:0.153846 2:-0.175 3:-0.227586 4:0.025641 
0.125 1:0.153846 2:0.325 3:-0.062069 4:-0.0769231 
0.125 1:-0.230769 2:0.1 3:0.131034 4:0.138462 
0.125 1:0.461538 2:0.2 3:0.2 4:0.189744 
0.125 1:1 2:0.375 3:0.296552 4:0.261538 
0.125 1:0.153846 2:0.55 3:0.393103 4:0.333333 
0.125 1:0.153846 2:0.125 3:0.531034 4:0.435897 
0.125 1:0.153846 2:0.1 3:0.710345 4:0.569231 
0.125 2:0.075 3:0.931034 4:0.733333 
0.125 1:0.230769 2:0.1 3:-0.00689655 4:0.866667 
0.125 1:0.153846 2:0.3 3:-0.0758621 4:-0.148718 
0.125 1:0.153846 2:0.075 3:0.172414 4:0.148718 
0.125 1:-0.384615 2:-0.275 3:-0.255172 4:0.00512821 
0.125 1:-0.538462 3:-0.103448 4:-0.210256 
0.125 1:-0.384615 2:0.075 3:-0.324138 4:-0.374359 
0.125 1:-0.307692 2:0.125 3:-0.0206897 4:-0.558974 
0.125 1:-0.307692 2:-0.2 3:-0.227586 4:0.025641 
0.125 1:-0.384615 2:-0.025 3:-0.448276 4:-0.138462 
0.125 1:0.153846 3:-0.103448 4:0.0666667 
0.125 1:0.153846 2:0.2 3:-0.117241 4:0.0358974 
0.125 1:0.307692 2:0.35 3:0.00689655 4:0.0769231 
0.125 1:0.153846 2:0.2 3:-0.324138 4:-0.0461538 
0.125 1:0.153846 2:-0.05 3:-0.393103 4:-0.0871795 
0.125 1:-0.307692 2:0.1 3:-0.531034 4:-0.189744 
0.125 1:0.153846 2:0.05 3:-0.227586 4:0.025641 
0.125 1:-0.384615 2:0.025 3:-0.42069 4:-0.138462 
0.125 1:-0.384615 2:0.075 3:0.0344828 4:-0.353846 
0.125 1:-0.384615 2:0.025 3:0.0206897 4:0.0358974 
0.125 1:0.153846 2:0.025 3:-0.241379 4:0.025641 
0.125 1:0.230769 2:0.325 3:-0.00689655 4:0.0769231 
0.125 1:0.153846 2:0.725 3:0.213793 4:0.241026 
0.125 1:0.230769 2:1 3:0.365517 4:0.353846 
0.125 1:0.230769 2:-0.05 3:-0.117241 4:0.507692 
0.125 1:-0.307692 2:0.1 3:0.00689655 4:0.630769 
0.125 1:-0.461538 2:-0.125 3:-0.296552 4:-0.00512821 
0.125 1:-0.307692 2:0.125 3:-0.42069 4:-0.0974359 
0.125 1:0.153846 2:0.1 3:0.0344828 4:-0.2 
0.125 1:-0.461538 2:-0.375 3:-0.337931 4:-0.0871795 
0.125 1:0.230769 2:0.05 3:0.144828 4:0.292308 
0.125 1:-0.538462 2:0.025 3:0.365517 4:0.45641 
0.125 1:0.153846 2:0.125 3:-0.186207 4:0.548718 
0.125 1:-0.384615 2:0.1 3:0.0758621 4:0.117949 
0.125 1:-0.307692 2:-0.2 3:-0.296552 4:-0.025641 
0.125 1:-0.307692 2:0.1 3:-0.655172 4:-0.292308 
0.125 1:0.153846 2:0.175 3:-0.324138 4:-0.117949 
0.125 1:-0.538462 2:-0.125 3:-0.172414 4:-0.0564103 
0.125 1:0.230769 2:0.325 3:-0.0758621 4:0.0153846 
0.125 1:-0.307692 2:0.1 3:-1 4:-0.528205 
0.125 1:-0.307692 2:0.125 3:-0.0344828 4:-0.630769 
0.125 1:-0.384615 2:-0.325 3:-0.310345 4:-0.0564103 
0.125 2:0.225 3:0.0758621 4:0.0974359 
0.125 1:-0.384615 2:-0.45 3:-0.393103 4:-0.148718 
0.125 1:-0.307692 2:0.1 3:-0.517241 4:-0.241026 
0.125 1:-0.230769 2:0.125 3:-0.641379 4:-0.333333 
0.125 1:0.153846 2:-0.4 3:-0.324138 4:-0.0461538 
0.125 1:0.153846 2:0.275 3:-0.42069 4:-0.117949 
0.125 1:0.307692 2:0.2 3:-0.131034 4:0.0871795 
0.125 2:0.55 3:0.0344828 4:0.230769 
0.125 1:-0.307692 2:-0.325 3:-0.310345 4:-0.138462 
0.125 1:-0.384615 2:-0.075 3:-0.37931 4:-0.0871795 
0.125 1:-0.461538 2:-0.4 3:-0.77931 4:-0.384615 
0.125 1:0.153846 2:0.075 3:0.062069 4:0.0974359 
0.125 1:0.230769 2:0.325 3:-0.062069 4:0.2 
0.125 1:-0.461538 2:0.075 3:0.103448 4:0.323077 
0.125 2:0.275 3:-0.393103 4:-0.0769231 
0.125 1:0.230769 2:0.525 3:0.0206897 4:0.0871795 
0.125 1:0.230769 2:0.275 3:0.393103 4:0.364103 
0.125 1:-0.384615 2:0.05 3:-0.324138 4:-0.0461538 
0.125 1:0.230769 2:0.25 3:-0.062069 4:-0.394872 
0.125 1:-0.153846 2:0.25 3:-0.365517 4:-0.0769231 
0.125 1:0.153846 2:0.125 3:-0.393103 4:-0.0974359 
0.125 1:-0.846154 2:-0.075 3:-0.158621 4:-0.251282 
0.125 1:-0.384615 2:0.05 3:0.0482759 4:-0.446154 
0.125 1:-0.153846 2:0.3 3:-0.062069 4:0.0974359 
0.125 1:-0.230769 2:-0.125 3:-0.186207 4:0.0461538 
0.125 2:-0.075 3:-0.158621 4:0.117949 
0.125 1:0.153846 2:0.175 3:-0.586207 4:-0.220513 
0.125 1:0.153846 2:0.1 3:0.144828 4:0.210256 
0.125 1:-0.461538 2:0.025 3:-0.103448 4:0.364103 
0.125 1:-0.384615 2:0.05 3:0.00689655 4:-0.00512821 
0.125 1:0.230769 2:0.425 3:0.172414 4:0.148718 
0.125 1:0.230769 2:0.675 3:0.310345 4:0.251282 
0.125 2:0.85 3:0.406897 4:0.323077 
0.125 1:0.230769 2:0.9 3:0.434483 4:0.34359 
0.125 1:0.153846 2:0.075 3:0.572414 4:0.446154 
0.125 1:-0.615385 2:0.025 3:-0.103448 4:-0.446154 
0.125 1:0.153846 2:-0.3 3:-0.489655 4:-0.158974 
0.125 1:0.230769 2:0.475 3:0.0344828 4:0.0974359 
0.125 1:0.153846 3:-0.131034 4:0.34359 
0.125 1:0.615385 2:0.275 3:-0.0758621 4:0.405128 
0.125 1:0.153846 2:0.075 3:0.0482759 4:0.497436 
0.125 1:-0.307692 2:0.1 3:0.186207 4:0.6 
0.125 1:0.230769 2:0.2 3:-0.158621 4:0.692308 
0.125 1:-0.153846 2:-0.125 3:-0.172414 4:1 
0.125 1:0.153846 2:-0.2 3:-0.213793 4:0.0461538 
0.125 1:0.846154 2:0.35 3:-0.0344828 4:-0.0461538 
0.125 1:0.230769 2:0.325 3:0.186207 4:0.2 
0.125 1:-0.384615 2:0.075 3:-0.00689655 4:-0.0666667 
0.125 1:0.230769 2:0.025 3:0.0206897 4:-0.0769231 
0.125 1:0.153846 2:-0.025 3:-0.103448 4:0.179487 
0.125 1:0.153846 2:-0.275 3:-0.255172 4:0.00512821 
0.125 1:-0.307692 2:0.075 3:-0.00689655 4:-0.302564 
0.125 1:-0.307692 2:0.025 3:-0.158621 4:0.00512821 
0.125 1:0.230769 2:0.075 3:-0.434483 4:-0.117949 
0.125 1:-0.384615 2:0.025 3:-0.282759 4:0.00512821 
0.125 1:0.153846 2:0.075 3:-0.448276 4:-0.117949 
0.125 1:-0.461538 2:-0.05 3:-0.117241 4:0.2 
0.125 1:0.230769 2:0.05 3:-0.0206897 4:-0.0666667 
0.125 1:0.307692 2:0.625 3:0.0482759 4:0.117949 
0.125 2:0.875 3:0.186207 4:0.220513 
0.125 1:0.153846 2:0.05 3:-0.103448 4:0.292308 
0.125 1:0.153846 2:-0.4 3:-0.351724 4:-0.138462 
0.125 1:0.153846 2:0.35 3:-0.0482759 4:-0.241026 
0.125 1:-0.461538 2:0.05 3:0.172414 4:0.189744 
0.125 1:-0.307692 2:0.05 3:-0.310345 4:-0.0153846 
0.125 1:0.153846 2:0.075 3:0.00689655 4:0.117949 
0.125 1:-0.0769231 2:0.35 3:0.144828 4:0.220513 
0.125 1:-0.153846 2:0.075 3:0.0206897 4:-0.251282 
0.125 1:0.153846 2:-0.1 3:-0.37931 4:-0.0974359 
0.125 1:0.230769 2:0.5 3:0.0206897 4:0.0666667 
0.125 1:0.692308 2:0.65 3:0.103448 4:0.128205 
0.125 1:0.153846 2:0.25 3:-0.144828 4:0.138462 
0.125 1:0.153846 2:0.1 3:0.0206897 4:0.251282 
0.125 1:0.153846 2:0.1 3:0.144828 4:0.34359 
0.125 1:-0.307692 2:0.075 3:0.393103 4:0.528205 
0.125 1:0.153846 2:-0.175 3:-0.255172 4:-0.138462 
0.125 2:0.3 3:-0.0758621 4:-0.210256 
0.125 1:0.153846 2:0.05 3:0.0344828 4:-0.292308 
0.125 1:0.153846 2:0.025 3:-0.448276 4:-0.138462 
0.125 1:0.538462 2:0.2 3:-0.517241 4:-0.189744 
0.125 1:-0.384615 2:-0.075 3:-0.503448 4:-0.2 
0.125 1:-0.153846 2:0.075 3:-0.227586 4:-0.415385 
0.125 1:-0.153846 2:0.075 3:0.0482759 4:0.0871795 
0.125 1:-0.230769 2:-0.075 3:-0.186207 4:0.435897 
0.125 1:0.153846 2:-0.25 3:-0.241379 4:-0.220513 
0.125 1:-0.461538 3:-0.37931 4:-0.117949 
0.125 1:0.153846 2:0.025 3:-0.103448 4:-0.323077 
0.125 1:-0.384615 2:-0.725 3:-0.489655 4:-0.158974 
0.125 1:0.307692 2:0.075 3:0.062069 4:0.107692 
0.125 1:-0.230769 2:0.125 3:0.2 4:0.210256 
0.125 1:0.153846 2:0.025 3:0.517241 4:0.446154 
0.125 1:0.153846 2:0.125 3:-0.103448 4:0.0461538 
0.125 1:0.153846 2:0.35 3:-0.00689655 4:-0.117949 
0.125 1:0.230769 2:0.25 3:0.324138 4:0.302564 
0.125 1:-0.307692 2:0.1 3:-0.42069 4:-0.107692 
0.125 1:-0.384615 2:0.075 3:-0.00689655 4:-0.292308 
0.125 1:0.153846 2:0.075 3:-0.2 4:-0.394872 
0.125 1:-0.384615 2:-0.225 3:-0.572414 4:-0.671795 
0.125 1:-0.307692 2:-0.05 3:-0.144828 4:-0.907692 
0.125 1:0.153846 2:0.175 3:0.103448 4:0.107692 
0.125 1:0.615385 2:0.325 3:0.186207 4:0.169231 
0.125 1:-0.307692 2:0.025 3:0.365517 4:0.302564 
0.125 1:0.153846 2:0.125 3:-0.227586 4:0.0461538 
0.125 1:-0.384615 2:0.1 3:0.00689655 4:0.0666667 
0.125 1:0.153846 2:0.35 3:0.158621 4:0.179487 
0.125 1:-0.307692 2:-0.075 3:-0.131034 4:0.384615 
0.125 1:0.153846 2:0.125 3:-0.268966 4:0.00512821 
0.125 1:-0.384615 2:0.075 3:-0.00689655 4:-0.158974 
0.125 1:0.153846 2:-0.25 3:-0.434483 4:-0.415385 
0.125 1:-0.307692 2:0.1 3:0.117241 4:0.138462 
0.125 2:0.4 3:0.131034 4:0.138462 
0.125 1:0.153846 2:-0.075 3:-0.144828 4:0.323077 
0.125 1:-0.384615 2:0.05 3:-0.296552 4:-0.00512821 
0.125 1:0.153846 2:-0.075 3:-0.186207 4:0.0358974 
0.125 1:0.461538 2:0.4 3:-0.0482759 4:-0.107692 
0.125 1:-0.692308 3:-0.117241 4:0.210256 
0.125 1:0.384615 2:0.35 3:-0.0344828 4:0.0666667 
0.125 1:0.230769 2:0.1 3:0.172414 4:0.220513 
0.125 1:0.307692 2:0.5 3:0.37931 4:0.374359 
0.125 1:0.230769 2:0.825 3:0.558621 4:0.507692 
0.125 2:0.075 3:1 4:0.835897 
0.125 1:-0.461538 2:0.075 3:-0.144828 4:-0.107692 
0.125 1:0.846154 2:0.35 3:-0.00689655 4:0.117949 
0.125 1:0.230769 2:0.05 3:0.186207 4:0.261538 
0.125 1:-0.538462 2:-0.15 3:-0.172414 4:0.476923 
0.125 1:0.230769 2:0.35 3:-0.0206897 4:-0.025641 
0.125 1:0.230769 2:0.525 3:0.0758621 4:0.117949 
0.125 1:0.153846 2:-0.075 3:-0.131034 4:0.302564 
0.125 1:0.153846 2:0.05 3:-0.255172 4:0.0153846 
0.125 1:0.153846 2:0.075 3:0.00689655 4:-0.107692 
0.125 1:-0.384615 2:-0.075 3:-0.158621 4:-0.220513 
0.125 1:0.153846 3:-0.365517 4:-0.374359 
-0.125 3:-0.172414 4:-0.00512821 
-0.125 1:0.153846 3:-0.296552 4:-0.0974359 
-0.125 1:0.230769 2:0.175 3:0.131034 4:0.189744 
-0.125 1:0.230769 2:0.1 3:-0.393103 4:-0.0974359 
-0.125 1:-0.538462 2:0.025 3:0.062069 4:0.220513 
-0.125 1:0.153846 2:0.175 3:-0.144828 4:-0.158974 
-0.125 1:0.461538 2:0.175 3:0.0344828 4:0.148718 
-0.125 2:0.2 3:-0.0344828 4:-0.0974359 
-0.125 1:-0.307692 2:0.1 3:0.0482759 4:0.0666667 
-0.125 2:0.275 3:-0.062069 4:0.0153846 
-0.125 1:-0.307692 2:0.1 3:-0.00689655 4:-0.025641 
-0.125 1:0.153846 2:0.45 3:0.062069 4:0.815385 
-0.125 1:0.230769 2:0.75 3:0.158621 4:0.179487 
-0.125 1:-0.307692 2:0.05 3:-0.103448 4:0.230769 
-0.125 1:-0.307692 2:0.075 3:0.144828 4:0.979487 
-0.125 1:-0.461538 2:0.025 3:-0.117241 4:1 
-0.125 1:-0.153846 2:-0.1 3:-0.186207 4:0.025641 
-0.125 1:0.230769 2:0.125 3:0.0758621 4:0.0769231 
-0.125 2:-0.05 3:-0.131034 4:0.538462 
-0.125 1:-0.307692 2:0.075 3:-0.0206897 4:-0.179487 
-0.125 1:0.307692 2:0.175 3:-0.489655 4:-0.497436 
-0.125 1:0.692308 2:0.275 3:0.0896552 4:0.0871795 
-0.125 2:0.45 3:0.186207 4:0.158974 
-0.125 1:-0.384615 2:-0.025 3:-0.131034 4:0.230769 
-0.125 1:0.153846 2:0.3 3:-0.351724 4:-0.0666667 
-0.125 1:0.230769 2:0.275 3:-0.572414 4:-0.230769 
-0.125 1:-0.384615 2:0.075 3:0.0206897 4:-0.312821 
-0.125 1:0.230769 2:0.3 3:-0.0758621 4:0.158974 
-0.125 1:-0.230769 2:0.125 3:0.00689655 4:0.312821 
-0.125 1:-0.692308 2:-0.025 3:-0.117241 4:0.374359 
-0.125 2:0.575 3:0.0758621 4:0.0974359 
-0.125 1:-0.384615 2:0.05 3:-0.103448 4:0.148718 
-0.125 1:-0.461538 2:0.05 3:-0.337931 4:-0.0461538 
-0.125 1:0.153846 2:0.125 3:-0.0206897 4:-0.0769231 
-0.02948300867016314 1:-0.692308 3:-0.158621 4:0.158974 
-0.125 1:0.153846 2:-0.2 3:-0.268966 4:-0.025641 
-0.125 1:0.153846 2:0.325 3:-0.586207 4:-0.261538 
-0.125 2:0.325 3:-0.0482759 4:0.148718 
-0.125 1:0.615385 2:0.6 3:0.144828 4:0.189744 
-0.125 1:0.615385 2:0.875 3:0.296552 4:0.302564 
-0.125 1:0.230769 2:0.275 3:-0.0758621 4:0.569231 
-0.125 1:-0.307692 2:0.1 3:-0.172414 4:0.74359 
-0.125 1:0.153846 2:0.3 3:0.144828 4:0.138462 
-0.09551699132983686 1:-0.384615 2:0.025 3:-0.117241 4:0.251282 
-0.125 1:-0.230769 2:-0.125 3:-0.2 4:0.0153846 
-0.125 1:0.153846 2:0.1 3:-0.0482759 4:-0.189744 
-0.125 1:0.307692 2:0.45 3:0.00689655 4:0.189744 
-0.125 1:-0.230769 2:0.125 3:0.310345 4:0.415385 
-0.125 1:-0.230769 2:0.125 3:-0.0758621 4:0.251282 
-0.125 1:-0.692308 2:-0.025 3:-0.2 4:0.0461538 
-0.125 1:0.153846 2:0.125 3:-0.434483 4:-0.128205 
-0.125 1:0.153846 2:-0.1 3:-0.558621 4:-0.220513 
-0.125 1:0.153846 2:0.025 3:-0.103448 4:0.0461538 
-0.125 1:-0.615385 2:-0.2 3:-0.227586 4:-0.0461538 
-0.125 1:0.153846 2:0.125 3:-0.0758621 4:0.0461538 
-0.125 1:0.153846 2:0.325 3:-0.062069 4:-0.158974 
-0.125 1:-0.307692 2:0.05 3:-0.103448 4:0.107692 
-0.125 1:0.153846 2:0.525 3:0.0344828 4:0.0871795 
-0.125 1:0.153846 2:0.025 3:0.158621 4:0.179487 
-0.125 1:0.153846 2:-0.125 3:-0.158621 4:0.241026 
-0.125 1:0.153846 2:-0.2 3:-0.2 4:0.271795 
-0.125 1:0.153846 2:-0.375 3:-0.296552 4:-0.00512821 
-0.125 1:0.153846 2:-0.55 3:-0.393103 4:-0.0769231 
-0.125 1:-0.0769231 2:-0.7 3:-0.475862 4:-0.138462 
-0.125 1:-0.692308 2:-0.9 3:-0.586207 4:-0.220513 
-0.125 1:0.153846 2:-1 3:-0.641379 4:-0.261538 
-0.125 1:-0.307692 2:0.1 3:-0.77931 4:-0.364103 
-0.125 1:0.153846 2:0.275 3:0.0758621 4:0.0871795 
-0.125 1:-0.307692 3:-0.131034 4:0.148718 
-0.125 1:-0.769231 2:-0.15 3:-0.213793 4:0.0153846 
-0.125 1:0.153846 2:0.1 3:-0.00689655 4:-0.241026 
-0.125 1:0.230769 2:0.575 3:0.0344828 4:0.241026 
-0.125 1:-0.307692 2:0.1 3:-0.062069 4:0.476923 
-0.125 1:-0.153846 2:-0.225 3:-0.268966 4:-0.0564103 
-0.125 1:-0.153846 2:0.3 3:-0.0344828 4:-0.415385 
-0.125 1:-0.384615 2:-0.025 3:-0.117241 4:0.107692 
-0.125 1:-0.769231 2:-0.15 3:-0.186207 4:0.0461538 
-0.125 1:0.153846 2:-0.25 3:-0.241379 4:0.00512821 
-0.125 1:-0.307692 2:0.1 3:-0.351724 4:-0.0769231 
-0.125 1:0.153846 2:-0.075 3:-0.448276 4:-0.148718 
-0.125 1:0.153846 2:0.175 3:-0.558621 4:-0.230769 
-0.125 1:-0.461538 2:0.05 3:0.0758621 4:0.0871795 
-0.125 1:-0.230769 2:-0.225 3:-0.227586 4:0.025641 
-0.125 1:0.230769 2:0.725 3:0.131034 4:0.302564 
-0.125 1:-0.384615 2:0.05 3:-0.103448 4:0.0153846 
-0.125 1:0.230769 2:0.475 3:0.00689655 4:0.0666667 
-0.125 1:-0.461538 2:0.025 3:-0.103448 4:0.158974 
-0.125 1:0.153846 2:0.25 3:-0.475862 4:-0.158974 
-0.125 1:-0.384615 2:-0.15 3:-0.641379 4:-0.282051 
-0.125 1:0.846154 2:0.325 3:-0.0758621 4:-0.487179 
-0.125 1:0.153846 2:0.1 3:-0.241379 4:0.0358974 
-0.125 1:-0.230769 2:0.275 3:-0.186207 4:0.405128 
-0.125 1:0.923077 2:0.75 3:0.144828 4:0.179487 
-0.125 1:0.153846 2:0.925 3:0.241379 4:0.251282 
-0.125 1:0.230769 2:0.1 3:0.324138 4:0.312821 
-0.125 1:-0.384615 2:0.075 3:0.531034 4:0.466667 
-0.125 1:-0.846154 2:-0.075 3:-0.144828 4:0.528205 
-0.125 1:0.384615 2:0.225 3:-0.241379 4:0.0153846 
-0.125 1:-0.307692 2:0.1 3:-0.448276 4:-0.138462 
-0.125 1:0.153846 2:0.1 3:0.0896552 4:0.158974 
-0.125 1:-0.461538 3:-0.172414 4:0.282051 
-0.125 1:-0.384615 2:0.075 3:0.00689655 4:-0.189744 
-0.125 2:0.425 3:-0.0206897 4:-0.394872 
-0.125 1:-0.307692 2:0.1 3:0.0344828 4:0.179487 
-0.125 1:0.153846 2:-0.025 3:-0.144828 4:-0.169231 
-0.125 1:0.153846 2:0.3 3:0.0758621 4:0.2 
-0.125 1:0.153846 3:-0.117241 4:0.261538 
-0.125 1:0.230769 2:0.3 3:-0.0758621 4:-0.0564103 
-0.125 2:0.125 3:-0.296552 4:-0.00512821 
-0.125 1:-0.384615 3:-0.365517 4:-0.0564103 
-0.125 1:0.230769 2:0.45 3:0.0206897 4:-0.333333 
-0.125 1:0.846154 2:0.4 3:0.0344828 4:0.128205 
-0.125 1:-0.692308 3:-0.296552 4:0.00512821 
-0.125 1:0.153846 2:-0.325 3:-0.475862 4:-0.128205 
-0.125 1:-0.307692 2:0.075 3:-0.586207 4:-0.210256 
-0.125 1:-0.384615 2:0.05 3:-0.00689655 4:-0.620513 
-0.125 1:-0.384615 2:0.075 3:-0.282759 4:-0.00512821 
-0.125 1:0.384615 2:0.2 3:0.062069 4:0.825641 
-0.125 1:0.230769 2:0.325 3:-0.0206897 4:0.00512821 
-0.125 1:-0.384615 2:0.075 3:0.365517 4:0.333333 
-0.125 1:0.153846 2:-0.125 3:-0.186207 4:0.415385 
-0.125 1:0.230769 2:0.35 3:-0.0344828 4:0.138462 
-0.125 1:0.230769 2:0.1 3:0.117241 4:0.251282 
-0.125 1:0.230769 2:0.1 3:-0.0206897 4:-0.0461538 
-0.125 1:-0.384615 2:0.1 3:0.0482759 4:0.292308 
-0.125 1:0.153846 2:-0.15 3:-0.186207 4:0.394872 
-0.125 1:0.153846 2:0.075 3:-0.393103 4:-0.0974359 
-0.125 1:0.153846 2:-0.075 3:-0.475862 4:-0.158974 
-0.125 1:0.230769 2:0.3 3:-0.0758621 4:-0.117949 
-0.125 1:-0.307692 2:-0.125 3:-0.158621 4:0.189744 
-0.125 1:0.153846 2:-0.4 3:-0.310345 4:-0.025641 
-0.125 1:0.153846 2:0.075 3:-0.00689655 4:-0.220513 
-0.125 1:0.692308 2:0.25 3:-0.062069 4:-0.189744 
-0.125 1:-0.461538 2:0.025 3:-0.117241 4:0.0358974 
-0.125 1:0.153846 2:-0.3 3:-0.296552 4:-0.0974359 
-0.125 1:0.307692 2:0.575 3:0.0758621 4:0.117949 
-0.125 1:0.153846 2:0.1 3:-0.2 4:0.282051 
-0.125 1:-0.538462 2:0.05 3:0.337931 4:0.364103 
-0.125 1:-0.307692 2:-0.25 3:-0.255172 4:-0.0153846 
-0.125 1:0.230769 2:0.275 3:-0.462069 4:-0.169231 
-0.125 1:0.153846 2:-0.15 3:-0.186207 4:0.0461538 
-0.125 1:0.153846 2:0.125 3:0.241379 4:0.230769 
-0.125 1:0.538462 2:0.25 3:0.241379 4:0.415385 
-0.125 1:0.230769 2:0.35 3:0.296552 4:0.45641 
-0.125 1:-0.0769231 2:0.175 3:-0.131034 4:0.579487 
-0.125 1:-0.461538 2:0.075 3:-0.117241 4:-0.0358974 
-0.125 1:0.307692 2:0.35 3:-0.0344828 4:0.158974 
-0.125 1:0.153846 2:0.075 3:0.103448 4:0.261538 
-0.125 1:0.153846 2:0.075 3:-0.0344828 4:-0.271795 
-0.125 1:0.230769 2:0.2 3:-0.103448 4:-0.323077 
-0.125 1:-0.615385 2:0.025 3:-0.172414 4:0.0461538 
-0.125 1:-1 2:-0.1 3:-0.241379 4:-0.00512821 
-0.125 1:0.384615 2:0.2 3:-0.337931 4:-0.0769231 
-0.125 1:0.153846 2:0.1 3:-0.406897 4:-0.128205 
-0.125 1:-0.461538 2:0.075 3:-0.0344828 4:-0.312821 
-0.125 1:0.153846 2:0.4 3:0.00689655 4:-0.558974 
-0.125 1:0.153846 2:0.45 3:0.227586 4:0.220513 
-0.125 1:0.153846 2:0.025 3:-0.131034 4:0.394872 
-0.125 1:0.153846 2:0.125 3:-0.0344828 4:-0.0666667 
-0.125 1:-0.153846 2:0.05 3:0.00689655 4:-0.0974359 
-0.125 1:-0.538462 2:-0.075 3:-0.144828 4:-0.148718 
-0.125 1:0.230769 2:0.275 3:-0.351724 4:-0.302564 
-0.125 1:-0.0769231 2:0.375 3:-0.0344828 4:-0.34359 
-0.125 1:0.230769 2:0.275 3:-0.213793 4:0.117949 
-0.125 1:0.153846 2:0.1 3:0.0206897 4:-0.0153846 
-0.125 1:0.692308 2:0.25 3:0.131034 4:0.158974 
-0.125 1:0.384615 2:0.425 3:0.37931 4:0.34359 
-0.125 1:0.153846 2:0.475 3:0.0206897 4:0.0358974 
-0.125 1:0.153846 2:0.775 3:0.227586 4:0.230769 
-0.125 1:-0.384615 2:0.05 3:0.572414 4:0.487179 
-0.125 1:-0.153846 2:-0.125 3:-0.172414 4:0.558974 
-0.125 1:0.153846 2:-0.375 3:-0.310345 4:-0.025641 
-0.125 1:0.153846 2:0.125 3:-0.310345 4:-0.476923 
-0.125 1:-0.384615 2:0.075 3:-0.406897 4:-0.548718 
-0.125 1:0.153846 2:-0.025 3:-0.462069 4:-0.589744 
-0.125 1:0.153846 2:0.075 3:-0.0482759 4:-0.85641 
-0.125 1:0.692308 2:0.275 3:-0.268966 4:-1 
-0.125 1:0.153846 2:0.525 3:0.296552 4:0.251282 
-0.125 1:0.230769 2:0.175 3:-0.158621 4:0.353846 
-0.125 1:0.461538 2:0.45 3:0.213793 4:0.220513 
-0.125 2:0.075 3:-0.255172 4:-0.282051 
-0.125 1:-0.230769 3:-0.296552 4:-0.312821 
-0.125 1:0.230769 2:0.5 3:0.186207 4:0.179487 
-0.125 1:-0.230769 2:0.075 3:0.296552 4:0.261538 
-0.125 1:0.230769 2:0.25 3:-0.406897 4:-0.0871795 
-0.125 1:-0.461538 2:0.05 3:0.0206897 4:-0.2 
-0.125 1:0.230769 2:0.075 3:-0.00689655 4:0.0871795 
-0.125 1:0.230769 2:0.1 3:0.889655 4:0.753846 
-0.125 1:0.230769 2:0.1 3:-0.172414 4:0.928205 
-0.125 1:0.230769 2:0.025 3:-0.117241 4:0.169231 
-0.125 1:0.230769 2:0.55 3:0.103448 4:0.2 
-0.125 1:0.230769 2:0.05 3:0.365517 4:0.394872 
-0.125 1:0.153846 2:0.1 3:0.227586 4:0.230769 
-0.125 1:0.153846 2:0.3 3:-0.062069 4:0.117949 
-0.125 1:-0.384615 2:0.025 3:-0.103448 4:0.0461538 
-0.125 1:0.153846 2:0.05 3:-0.255172 4:-0.0461538 
-0.125 1:0.153846 2:0.075 3:-0.00689655 4:-0.158974 
-0.125 1:-0.384615 2:0.075 3:0.0206897 4:-0.538462 
-0.125 1:-0.384615 2:0.075 3:0.0206897 4:-0.0666667 
