svm_type c_svc
kernel_type rbf
gamma 0.25
nr_class 2
total_sv 397
rho 0.00423537
label 1 -1
nr_sv 198 199
SV
1 1:2 2:-3 3:-23 4:-23 
0.6231623902963284 1:-9 2:-6 3:-2 4:-26 
1 1:3 2:7 3:-15 4:-39 
0.7284761423302822 1:2 2:-6 3:-1 4:3 
0.8501796993449331 1:-5 2:-12 3:-9 4:-2 
1 1:1 2:1 3:-19 4:-27 
1 1:-5 2:-10 3:-3 4:9 
1 1:-6 2:-3 3:3 4:-9 
0.9167051332449164 1:-5 2:-3 3:18 4:10 
1 1:-1 2:9 3:30 4:22 
0.9042109325989399 1:1 2:-2 3:43 4:35 
0.9283411394339086 1:2 2:-1 3:60 4:52 
1 1:-6 2:-4 3:-1 4:82 
1 1:2 2:3 3:-7 4:88 
1 1:-5 2:-3 3:8 4:-8 
1 1:6 2:11 3:5 4:-3 
0.8492640972950204 1:1 2:-13 3:-10 4:-3 
1 1:1 2:7 3:2 4:-13 
0.557041255548699 1:-4 2:-2 3:16 4:8 
1 1:5 2:2 3:21 4:13 
1 1:12 2:9 3:28 4:20 
1 1:1 2:16 3:35 4:27 
0.8688173742425732 1:1 2:-1 3:45 4:37 
0.9280704589364041 1:1 2:-2 3:58 4:50 
1 1:-1 2:-3 3:74 4:66 
1 1:2 2:-2 3:6 4:79 
1 1:1 2:6 3:1 4:-20 
1 1:1 2:-3 3:19 4:9 
1 1:-6 2:-17 3:-12 4:-5 
0.6259525309126696 1:-8 2:-6 3:-1 4:-26 
1 1:-6 2:-3 3:-17 4:-42 
1 1:-5 2:-1 3:5 4:-60 
1 1:-5 2:-14 3:-10 4:-3 
0.8855401579123146 1:-6 2:-7 3:-26 4:-19 
1 1:1 2:-6 3:-1 4:1 
0.9488145941381659 1:1 2:2 3:-2 4:-2 
0.6538756191324444 1:3 2:8 3:7 4:2 
1 1:1 2:2 3:-17 4:-10 
0.8221914188819606 1:1 2:-8 3:-22 4:-14 
1 1:-5 2:-2 3:-32 4:-24 
0.8397001560549353 1:1 2:-4 3:-10 4:-3 
0.8852733884860525 1:-6 2:-5 3:-24 4:-19 
1 1:-6 2:-3 3:9 4:-40 
0.9890687044580242 1:-6 2:-5 3:8 4:-2 
0.2442565926674032 1:1 2:-5 3:-11 4:-3 
0.6212557350516267 1:2 2:7 3:6 4:2 
1 1:1 2:23 3:22 4:18 
1 1:2 2:34 3:33 4:29 
1 1:2 2:-8 3:-2 4:44 
1 1:-5 2:-2 3:7 4:56 
0.9900032146590459 1:-7 2:-11 3:-15 4:-6 
0.6049339997500239 1:-5 2:-1 3:-24 4:-15 
1 1:1 2:-2 3:9 4:-25 
0.9926823534610757 1:-7 2:-21 3:-18 4:-14 
0.9994426598301905 1:2 2:-4 3:17 4:23 
1 1:-8 2:-5 3:33 4:39 
1 1:1 2:-1 3:-7 4:48 
1 1:-6 2:-2 3:12 4:6 
1 1:-5 2:-14 3:-15 4:-8 
0.9957056062086411 1:-5 2:-2 3:-41 4:-34 
1 1:1 2:1 3:-17 4:-17 
1 1:-8 2:-11 3:-6 4:-11 
1 1:2 2:7 3:1 4:-4 
1 1:-5 2:-2 3:-66 4:-57 
1 1:-5 2:-1 3:4 4:-67 
0.9936174961229274 1:-6 2:-19 3:-16 4:-11 
1 1:-1 2:3 3:12 4:4 
1 1:-6 2:-24 3:-22 4:-20 
1 1:-5 2:-2 3:-31 4:-29 
0.9952412478999412 1:-4 2:-1 3:-40 4:-38 
1 1:1 2:-22 3:-17 4:-10 
1 1:1 2:5 3:-24 4:-17 
1 1:3 2:2 3:-3 4:3 
1 1:-1 2:16 3:9 4:17 
1 1:-5 2:-19 3:-16 4:-19 
1 1:-6 2:-9 3:-21 4:-14 
1 1:-7 2:-22 3:-50 4:-43 
0.8449259735145815 1:1 2:-3 3:11 4:4 
1 1:2 2:7 3:2 4:14 
1 1:-7 2:-3 3:14 4:26 
0.9794005382440566 1:-1 2:5 3:-22 4:-13 
1 1:2 2:15 3:8 4:3 
1 1:2 2:5 3:35 4:30 
1 1:-6 2:-4 3:-17 4:-10 
1 1:2 2:4 3:2 4:-44 
0.9048176565980141 1:-3 2:4 3:-20 4:-13 
1 1:1 2:-1 3:-22 4:-15 
1 1:-12 2:-9 3:-5 4:-30 
1 1:-6 2:-4 3:10 4:-49 
1 1:-3 2:6 3:2 4:4 
1 1:-4 2:-11 3:-7 4:-1 
1 1:-1 2:-9 3:-5 4:6 
1 1:1 2:1 3:-36 4:-27 
0.8577448478379753 1:1 2:-2 3:17 4:15 
1 1:-7 2:-5 3:-1 4:30 
0.9002426589984684 1:-6 2:-4 3:7 4:-6 
1 1:2 2:11 3:19 4:9 
1 1:2 2:21 3:29 4:19 
0.9986794627632324 1:-1 2:28 3:36 4:26 
0.9991790726000441 1:2 2:30 3:38 4:28 
0.9710601551501635 1:1 2:-3 3:48 4:38 
1 1:-9 2:-5 3:-1 4:-49 
1 1:1 2:-18 3:-29 4:-21 
0.9656306067164138 1:2 2:13 3:9 4:4 
0.981571693659177 1:1 2:-6 3:-3 4:28 
1 1:7 2:5 3:1 4:34 
1 1:1 2:-3 3:10 4:43 
1 1:-5 2:-2 3:20 4:53 
1 1:2 2:2 3:-5 4:62 
1 1:-3 2:-11 3:-6 4:92 
0.9523614607606904 1:1 2:-14 3:-9 4:-1 
1 1:10 2:8 3:4 4:-10 
0.9278806588180307 1:2 2:7 3:20 4:14 
1 1:-6 2:-3 3:6 4:-12 
0.9193452882358364 1:2 2:-5 3:8 4:-13 
1 1:1 2:-7 3:-1 4:12 
1 1:1 2:-17 3:-12 4:-5 
0.9142489522735742 1:-5 2:-3 3:6 4:-35 
1 1:-5 2:-5 3:-5 4:-5 
1 1:2 2:-3 3:-25 4:-17 
0.8090406941040981 1:-6 2:-5 3:-14 4:-5 
0.5651149436844771 1:1 2:-3 3:-26 4:-17 
1 1:-7 2:-8 3:-2 4:14 
1 1:2 2:-4 3:5 4:-12 
1 1:3 2:19 3:10 4:6 
1 1:-1 2:29 3:20 4:16 
1 1:1 2:-4 3:-1 4:23 
1 1:1 2:-22 3:-19 4:-19 
0.9987927824098948 1:1 2:8 3:3 4:-29 
0.9810703536836987 1:-7 2:-4 3:19 4:13 
0.6219645763605695 1:-5 2:-4 3:-16 4:-7 
1 1:1 2:-3 3:7 4:6 
1 1:-2 2:8 3:17 4:16 
1 1:-3 2:-3 3:8 4:-30 
0.8208694874807188 1:1 2:-10 3:-21 4:-15 
1 1:2 2:14 3:8 4:1 
1 1:8 2:20 3:14 4:7 
1 1:1 2:4 3:-4 4:8 
1 1:1 2:-2 3:8 4:19 
1 1:1 2:-2 3:17 4:28 
1 1:-5 2:-3 3:35 4:46 
1 1:1 2:-13 3:-12 4:-19 
0.9994192325988002 1:-1 2:6 3:1 4:-26 
1 1:1 2:-4 3:9 4:-34 
0.8772351157072442 1:1 2:-5 3:-26 4:-19 
1 1:6 2:2 3:-31 4:-24 
1 1:-6 2:-9 3:-30 4:-25 
1 1:-3 2:-3 3:-10 4:-46 
1 1:-3 2:-3 3:10 4:3 
1 1:-4 2:-9 3:-7 4:37 
1 1:1 2:-16 3:-11 4:-27 
0.9741450059824294 1:-7 2:-6 3:-21 4:-17 
1 1:1 2:-5 3:-1 4:-37 
1 1:-6 2:-35 3:-29 4:-21 
0.7801228227938799 1:3 2:-3 3:11 4:5 
1 1:-4 2:-1 3:21 4:15 
0.9804816235733556 1:1 2:-5 3:44 4:38 
1 1:1 2:-1 3:-1 4:-1 
1 1:1 2:8 3:6 4:-17 
1 1:2 2:4 3:30 4:24 
0.6676241142463247 1:-5 2:-2 3:-24 4:-16 
0.6894818963896349 1:-6 2:-3 3:6 4:-34 
1 1:1 2:-3 3:-8 4:-44 
1 1:-6 2:-15 3:-35 4:-71 
1 1:-5 2:-8 3:-4 4:-94 
0.9771742598534555 1:1 2:1 3:14 4:5 
1 1:7 2:7 3:20 4:11 
1 1:-5 2:-5 3:33 4:24 
1 1:1 2:-1 3:-10 4:-1 
1 1:-6 2:-2 3:7 4:1 
0.9247903220483409 1:1 2:8 3:18 4:12 
1 1:-5 2:-9 3:-3 4:32 
1 1:1 2:-1 3:-13 4:-5 
1 1:-6 2:-3 3:6 4:-21 
1 1:1 2:-16 3:-25 4:-46 
0.6085882645563195 1:-5 2:-2 3:15 4:8 
1 1:-1 2:10 3:16 4:8 
0.7490551515389142 1:1 2:-9 3:-4 4:26 
0.9345576009538133 1:-6 2:-4 3:-15 4:-6 
1 1:1 2:-9 3:-7 4:-2 
1 1:5 2:10 3:3 4:-16 
0.9786281526623315 1:-10 2:-6 3:-2 4:15 
0.911000345314829 1:4 2:8 3:4 4:1 
0.8192923937186826 1:2 2:-2 3:19 4:16 
1 1:3 2:14 3:34 4:31 
1 1:2 2:27 3:47 4:44 
1 1:-1 2:-3 3:79 4:76 
1 1:-7 2:-3 3:-4 4:-16 
1 1:10 2:8 3:6 4:6 
0.9915471230986173 1:2 2:-4 3:20 4:20 
1 1:-8 2:-12 3:-6 4:41 
1 1:2 2:8 3:5 4:-8 
1 1:2 2:15 3:12 4:6 
0.7883072620369685 1:1 2:-9 3:-3 4:24 
0.6877688898182862 1:1 2:-4 3:-12 4:-4 
1 1:1 2:-3 3:7 4:-16 
1 1:-6 2:-9 3:-5 4:-27 
1 1:1 2:-6 3:-20 4:-42 
-1 1:-1 2:-6 3:-6 4:-6 
-0.9953226508400931 1:1 2:-6 3:-15 4:-15 
-1 1:2 2:1 3:16 4:13 
-1 1:2 2:-2 3:-22 4:-15 
-0.9953790676897927 1:-8 2:-5 3:11 4:16 
-0.9960939437466489 1:1 2:1 3:-4 4:-21 
-0.9954215379815474 1:5 2:1 3:9 4:9 
-0.9855813953902745 1:-1 2:2 3:4 4:-15 
-1 1:-5 2:-2 3:10 4:1 
-1 1:-1 2:5 3:2 4:-4 
-1 1:-5 2:-2 3:6 4:-8 
-0.9955493222328017 1:1 2:12 3:11 4:74 
-0.9960768924666579 1:2 2:24 3:18 4:12 
-0.8261126889063455 1:-5 2:-4 3:-1 4:17 
-0.9954537798130122 1:-5 2:-3 3:17 4:90 
-0.9959780241530285 1:-7 2:-5 3:-2 4:92 
-0.9285947438439963 1:-3 2:-10 3:-7 4:-3 
-1 1:2 2:-1 3:12 4:2 
-1 1:-1 2:-8 3:-3 4:47 
-1 1:-5 2:-3 3:5 4:-23 
-0.9955824082119039 1:3 2:1 3:-29 4:-54 
-0.9956574502239258 1:8 2:5 3:13 4:3 
-1 1:-1 2:12 3:20 4:10 
-0.9450785805309155 1:-6 2:-7 3:-3 4:17 
-1 1:1 2:6 3:-19 4:-12 
-0.970321637969231 1:2 2:5 3:-35 4:-28 
-1 1:-6 2:-3 3:8 4:-36 
-0.9421765630853632 1:2 2:6 3:1 4:10 
-0.9851672320374874 1:-4 2:-1 3:7 4:25 
-1 1:-10 2:-7 3:-2 4:31 
-0.9940883862031887 1:-1 2:17 3:12 4:4 
-0.5818387464881689 1:-6 2:-4 3:-1 4:9 
-1 1:-7 2:-4 3:-18 4:-10 
-0.7361153188219061 1:1 2:-1 3:5 4:-13 
-0.9944025715711722 1:-10 2:-6 3:-5 4:10 
-0.9887382778117468 1:1 2:-14 3:-13 4:-8 
-0.9729030254642442 1:1 2:7 3:-36 4:-31 
-0.9114397951155403 1:-1 2:7 3:3 4:9 
-0.9956658583363267 1:7 2:18 3:17 4:13 
-0.9957056065500517 1:7 2:29 3:28 4:24 
-0.9956413722057247 1:2 2:5 3:1 4:50 
-0.9954188330022381 1:-5 2:-2 3:-6 4:67 
-1 1:1 2:6 3:17 4:8 
-0.7515212748777779 1:-6 2:-5 3:-2 4:19 
-0.9027120032519053 1:-4 2:-11 3:-8 4:-4 
-0.9804634553837049 1:1 2:-2 3:3 4:-24 
-0.9955498470141736 1:3 2:12 3:7 4:13 
-0.9959584420488847 1:-4 2:-1 3:29 4:35 
-0.9865693738627742 1:-4 2:-1 3:1 4:19 
-0.8998081315804064 1:-10 2:-7 3:-8 4:-1 
-1 1:1 2:-1 3:-25 4:-18 
-0.9958039657989209 1:1 2:-10 3:-34 4:-27 
-1 1:1 2:-5 3:-1 4:-1 
-0.9966759639737324 1:-9 2:-14 3:-10 4:-10 
-1 1:1 2:-1 3:1 4:-1 
-1 1:1 2:7 3:2 4:-21 
-0.9258614458094915 1:-5 2:-4 3:-1 4:5 
-1 1:1 2:15 3:9 4:3 
-1 1:1 2:-5 3:18 4:12 
-0.9949714784641609 1:1 2:-11 3:-5 4:18 
-0.9944129014321592 1:1 2:-14 3:-8 4:21 
-0.7120501649590157 1:1 2:-21 3:-15 4:-6 
-0.9958609517232531 1:1 2:-28 3:-22 4:-13 
-1 1:-2 2:-34 3:-28 4:-19 
-0.9954794665871811 1:-10 2:-42 3:-36 4:-27 
-0.9954621494332887 1:1 2:-46 3:-40 4:-31 
-0.9955264876684126 1:-5 2:-2 3:-50 4:-41 
-1 1:1 2:5 3:12 4:3 
-0.8889545446125321 1:-5 2:-6 3:-3 4:9 
-0.9533781799216046 1:-11 2:-12 3:-9 4:-4 
-0.7417145954632234 1:1 2:-2 3:6 4:-29 
-1 1:2 2:17 3:9 4:18 
-0.9956409991208871 1:-5 2:-2 3:2 4:41 
-1 1:-3 2:-15 3:-13 4:-11 
-0.9954706576765591 1:-3 2:6 3:4 4:-46 
-0.9285915054702397 1:-6 2:-7 3:-2 4:5 
-0.9574884681581068 1:-11 2:-12 3:-7 4:-1 
-1 1:1 2:-16 3:-11 4:-5 
-0.992437992164535 1:-5 2:-2 3:-19 4:-13 
-0.7873548155664348 1:1 2:-9 3:-26 4:-20 
-1 1:1 2:1 3:-34 4:-28 
-1 1:-7 2:-4 3:12 4:3 
-1 1:-4 2:-15 3:-10 4:-3 
-0.9957284393355573 1:2 2:23 3:16 4:24 
-0.856077505513579 1:-6 2:-4 3:-1 4:-4 
-1 1:2 2:13 3:7 4:1 
-0.6473319090490939 1:-7 2:-5 3:-1 4:10 
-0.7283630786088475 1:1 2:4 3:-28 4:-21 
-0.9957205943500947 1:-6 2:-12 3:-40 4:-33 
-0.9954755542898084 1:10 2:7 3:1 4:-53 
-1 1:1 2:-2 3:-11 4:-2 
-0.9958087147461236 1:-4 2:5 3:-7 4:34 
-0.9961217493127662 1:11 2:24 3:17 4:12 
-0.9959499195275382 1:1 2:31 3:24 4:19 
-0.9956209913575406 1:2 2:-2 3:30 4:25 
-0.9661413631156115 1:-6 2:-3 3:45 4:40 
-0.9960917149406394 1:-12 2:-9 3:-4 4:46 
-0.9961397416660636 1:4 2:3 3:-11 4:-4 
-1 1:-5 2:-2 3:-26 4:-19 
-0.9950650537251661 1:1 2:-2 3:13 4:10 
-0.9947237383639742 1:-7 2:-6 3:-6 4:22 
-0.5678550283786427 1:-6 2:-3 3:7 4:-24 
-0.9950515205608949 1:-1 2:11 3:5 4:-44 
-0.9954643666666182 1:-5 2:-2 3:9 4:12 
-0.9960185183873835 1:1 2:-7 3:-4 4:-22 
-0.9962873034331883 1:1 2:6 3:12 4:14 
-1 1:1 2:-6 3:-2 4:20 
-1 1:2 2:6 3:1 4:-11 
-1 1:-1 2:-1 3:-15 4:-6 
-0.9489338361150264 1:-6 2:-6 3:-20 4:-11 
-0.9957179877080355 1:2 2:12 3:8 4:-38 
-1 1:10 2:10 3:9 4:7 
-1 1:-10 2:-6 3:-15 4:-5 
-1 1:1 2:-19 3:-28 4:-18 
-1 1:-5 2:-3 3:-36 4:-26 
-1 1:-6 2:-4 3:6 4:-66 
-1 1:-6 2:-3 3:-14 4:-6 
-0.995984261139668 1:4 2:2 3:11 4:75 
-1 1:2 2:7 3:5 4:-5 
-1 1:-6 2:-3 3:33 4:27 
-0.7742949013363299 1:1 2:-11 3:-7 4:35 
-0.6802716578650316 1:2 2:8 3:4 4:8 
-0.7351540831144425 1:2 2:-2 3:15 4:19 
-1 1:2 2:-2 3:5 4:-10 
-0.9860255615381218 1:-6 2:-2 3:10 4:23 
-0.7738853781298135 1:1 2:-12 3:-7 4:33 
-0.7322750620060277 1:1 2:-3 3:-22 4:-15 
-0.7720128178069767 1:1 2:-9 3:-28 4:-21 
-1 1:2 2:6 3:1 4:-17 
-1 1:-5 2:-11 3:-5 4:13 
-0.8454112482107348 1:1 2:-22 3:-16 4:-8 
-0.8045479281542445 1:1 2:-3 3:6 4:-27 
-0.9959320550693278 1:8 2:4 3:2 4:-24 
-0.5274347388342838 1:-7 2:-5 3:-2 4:-2 
-0.9962709151157325 1:1 2:-18 3:-15 4:-15 
-1 1:3 2:17 3:12 4:6 
-0.9960902687562484 1:1 2:-2 3:-8 4:22 
-0.9850371754552372 1:-8 2:-4 3:31 4:30 
-1 1:-5 2:-16 3:-12 4:-7 
-0.7278850450900226 1:2 2:5 3:-27 4:-22 
-1 1:1 2:-12 3:-7 4:-1 
-0.6089495920094937 1:1 2:-1 3:24 4:17 
-0.9960839844571292 1:6 2:4 3:24 4:35 
-0.9959670563595749 1:2 2:8 3:28 4:39 
-0.9963506054716771 1:-2 2:1 3:-3 4:51 
-0.9967355404312378 1:-7 2:-3 3:-2 4:-9 
-0.7674400813040637 1:3 2:8 3:4 4:10 
-0.7325055452960243 1:1 2:-3 3:14 4:20 
-0.9731696328200363 1:1 2:-3 3:4 4:-32 
-0.996100639858332 1:2 2:2 3:-1 4:-37 
-0.8981400687899878 1:-9 2:-5 3:-6 4:-1 
-0.9911390713496301 1:-14 2:-10 3:-11 4:-6 
-1 1:4 2:2 3:-18 4:-13 
-0.8813660794751565 1:1 2:-2 3:-23 4:-18 
-1 1:-7 2:-3 3:4 4:-36 
-0.9954846166505141 1:1 2:10 3:7 4:-60 
-0.9813791630636547 1:1 2:12 3:23 4:16 
-0.9975980316103045 1:1 2:-5 3:-3 4:33 
-0.4362005652665147 1:1 2:-1 3:4 4:-12 
-1 1:-3 2:-4 3:7 4:-15 
-0.9961255390239832 1:-8 2:-9 3:-4 4:-20 
-0.9956856914762349 1:2 2:5 3:-19 4:-35 
-0.9952367291720948 1:-2 2:9 3:4 4:-39 
-0.9958532246799673 1:2 2:5 3:-9 4:6 
-0.9875880427188113 1:1 2:-2 3:8 4:-7 
-0.9973869535952586 1:8 2:4 3:16 4:10 
-1 1:4 2:11 3:34 4:28 
-0.9957808408758334 1:1 2:13 3:8 4:-2 
-1 1:1 2:25 3:23 4:17 
-0.9663006803047223 1:-6 2:-4 3:48 4:42 
-0.9944565590598361 1:-3 2:-11 3:-6 4:49 
-0.3568000210265475 1:1 2:-21 3:-16 4:-8 
-0.9957643742138444 1:1 2:-1 3:-16 4:-52 
-0.9955635070920685 1:-6 2:-3 3:-23 4:-59 
-0.9956288180214249 1:1 2:-7 3:-27 4:-63 
-0.9954837159495143 1:1 2:-3 3:3 4:-89 
-0.995394038292448 1:8 2:5 3:-13 4:-103 
-0.9963203018695151 1:1 2:15 3:28 4:19 
-0.9960780050690213 1:2 2:1 3:-5 4:29 
-0.9813464637410118 1:5 2:12 3:22 4:16 
-0.9954540365458135 1:-1 2:-3 3:-12 4:-33 
-0.9953301533142612 1:-4 2:-6 3:-15 4:-36 
-0.989317983465143 1:2 2:14 3:20 4:12 
-0.9961528420389462 1:-4 2:-3 3:28 4:20 
-1 1:2 2:4 3:-23 4:-14 
-0.7797517831871861 1:-7 2:-4 3:8 4:-25 
-1 1:2 2:-3 3:6 4:3 
-0.9986930259536135 1:2 2:-2 3:71 4:68 
-0.9958051312400293 1:2 2:-2 3:-6 4:85 
-1 1:2 2:-5 3:-2 4:11 
-0.9953806120608588 1:2 2:16 3:14 4:14 
-0.9957989265542962 1:2 2:-4 3:33 4:33 
-0.6391748562356371 1:1 2:-2 3:23 4:17 
-0.9434563711069917 1:1 2:6 3:2 4:6 
-0.6759030281032816 1:-6 2:-5 3:-1 4:-1 
-0.9956490174652124 1:1 2:-4 3:-12 4:-10 
-0.9902872925275144 1:1 2:-3 3:6 4:-21 
-1 1:-6 2:-3 3:8 4:-58 
-1 1:-6 2:-3 3:8 4:-12 
